{
  "input_nodes": 5,
  "hidden_nodes": 5,
  "output_nodes": 3,
  "weights_IH": {
    "rows": 5,
    "cols": 5,
    "data": [
      [
        -0.4166797291046396,
        0.762519641638606,
        0.926660507527727,
        0.876132828792318,
        -0.028260999088818295
      ],
      [
        -0.555231001200462,
        -0.13474983845630328,
        -0.44164022385474455,
        0.8215373578886047,
        -0.01593421760781899
      ],
      [
        0.39639161021897085,
        -0.7588853963468929,
        -0.05114375550129191,
        0.8930428984115868,
        0.5316790497822428
      ],
      [
        0.3695082429119214,
        -0.10475912470397253,
        0.48236586546210125,
        0.5791405729288068,
        0.8414180192328646
      ],
      [
        0.8169503113297671,
        -0.8723135653090401,
        0.048535643596336886,
        0.25356312061225594,
        -0.6710018645108073
      ]
    ]
  },
  "weights_HO": {
    "rows": 3,
    "cols": 5,
    "data": [
      [
        0.6496485377961374,
        -0.6398172846511692,
        -0.30158542927413334,
        -0.020131717977920793,
        0.7630060358847683
      ],
      [
        0.2636313961982446,
        0.022634945173261478,
        0.010170046846050607,
        -0.1261721979786059,
        -0.8916261527465053
      ],
      [
        -0.06290337225658194,
        -0.3642095535235703,
        0.7844800560260179,
        0.18783546630659087,
        0.4591127690808685
      ]
    ]
  },
  "bias_H": {
    "rows": 5,
    "cols": 1,
    "data": [
      [
        0.14109255266801224
      ],
      [
        0.6856625063181712
      ],
      [
        -0.09135385426486398
      ],
      [
        -0.9333297127082756
      ],
      [
        0.8920709204948558
      ]
    ]
  },
  "bias_O": {
    "rows": 3,
    "cols": 1,
    "data": [
      [
        -0.5459530831059709
      ],
      [
        -0.9281467147329581
      ],
      [
        0.1423755692007247
      ]
    ]
  },
  "learning_rate": 0.08
}
